Language model created by QuickLM on Fri Oct 31 17:05:20 EDT 2014
Copyright (c) 1996-2010 Carnegie Mellon University and Alexander I. Rudnicky

The model is in standard ARPA format, designed by Doug Paul while he was at MITRE.

The code that was used to produce this language model is available in Open Source.
Please visit http://www.speech.cs.cmu.edu/tools/ for more information

The (fixed) discount mass is 0.5. The backoffs are computed using the ratio method.
This model based on a corpus of 66 sentences and 64 words

\data\
ngram 1=64
ngram 2=128
ngram 3=85

\1-grams:
-0.8179 </s> -0.3010
-0.8179 <s> -0.2258
-2.6375 ACTS -0.2294
-2.6375 AMOS -0.2294
-2.3365 CHRONICLES -0.2294
-2.6375 COLOSSIANS -0.2294
-2.6375 CORINTHIANS -0.2294
-2.6375 CORITHIANS -0.2294
-2.6375 DANIEL -0.2294
-2.6375 DEUTERONOMY -0.2294
-2.6375 ECCLESIASTES -0.2294
-2.6375 EPHESIANS -0.2294
-2.6375 ESTHER -0.2294
-2.6375 EXODUS -0.2294
-2.6375 EZEKIEL -0.2294
-2.6375 EZRA -0.2294
-1.7344 FIRST -0.2837
-2.6375 GALATIANS -0.2294
-2.6375 GENESIS -0.2294
-2.6375 HABAKKUK -0.2294
-2.6375 HAGGAI -0.2294
-2.6375 HEBREWS -0.2294
-2.6375 HOSEA -0.2294
-2.6375 ISAIAH -0.2294
-2.6375 JAMES -0.2294
-2.6375 JEREMIAH -0.2294
-2.6375 JOB -0.2294
-2.6375 JOEL -0.2294
-2.0354 JOHN -0.2294
-2.6375 JONAH -0.2294
-2.6375 JOSHUA -0.2294
-2.6375 JUDE -0.2294
-2.6375 JUDGES -0.2294
-2.3365 KINGS -0.2294
-2.6375 LAMENTATIONS -0.2294
-2.6375 LEVITICUS -0.2294
-2.6375 LUKE -0.2294
-2.6375 MALACHI -0.2294
-2.6375 MARK -0.2294
-2.6375 MATTHEW -0.2294
-2.6375 MICAH -0.2294
-2.6375 NAHUM -0.2294
-2.6375 NEHEMIAH -0.2294
-2.6375 NUMBERS -0.2294
-2.6375 OBADIAH -0.2294
-2.6375 OF -0.3000
-2.3365 PETER -0.2294
-2.6375 PHILEMON -0.2294
-2.6375 PHILIPPIANS -0.2294
-2.6375 PROVERBS -0.2294
-2.6375 PSALMS -0.2294
-2.6375 REVELATIONS -0.2294
-2.6375 ROMANS -0.2294
-2.6375 RUTH -0.2294
-2.3365 SAMUEL -0.2294
-1.7344 SECOND -0.2837
-2.6375 SOLOMON -0.2294
-2.6375 SONGS -0.3000
-2.3365 THESSALONIANS -0.2294
-2.6375 THIRD -0.2970
-2.3365 TIMOTHY -0.2294
-2.6375 TITUS -0.2294
-2.6375 ZECHARIAH -0.2294
-2.6375 ZEPHANIAH -0.2294

\2-grams:
-2.1206 <s> ACTS 0.0000
-2.1206 <s> AMOS 0.0000
-2.1206 <s> COLOSSIANS 0.0000
-2.1206 <s> DANIEL 0.0000
-2.1206 <s> DEUTERONOMY 0.0000
-2.1206 <s> ECCLESIASTES 0.0000
-2.1206 <s> EPHESIANS 0.0000
-2.1206 <s> ESTHER 0.0000
-2.1206 <s> EXODUS 0.0000
-2.1206 <s> EZEKIEL 0.0000
-2.1206 <s> EZRA 0.0000
-1.2175 <s> FIRST 0.0000
-2.1206 <s> GALATIANS 0.0000
-2.1206 <s> GENESIS 0.0000
-2.1206 <s> HABAKKUK 0.0000
-2.1206 <s> HAGGAI 0.0000
-2.1206 <s> HEBREWS 0.0000
-2.1206 <s> HOSEA 0.0000
-2.1206 <s> ISAIAH 0.0000
-2.1206 <s> JAMES 0.0000
-2.1206 <s> JEREMIAH 0.0000
-2.1206 <s> JOB 0.0000
-2.1206 <s> JOEL 0.0000
-2.1206 <s> JOHN 0.0000
-2.1206 <s> JONAH 0.0000
-2.1206 <s> JOSHUA 0.0000
-2.1206 <s> JUDE 0.0000
-2.1206 <s> JUDGES 0.0000
-2.1206 <s> LAMENTATIONS 0.0000
-2.1206 <s> LEVITICUS 0.0000
-2.1206 <s> LUKE 0.0000
-2.1206 <s> MALACHI 0.0000
-2.1206 <s> MARK 0.0000
-2.1206 <s> MATTHEW 0.0000
-2.1206 <s> MICAH 0.0000
-2.1206 <s> NAHUM 0.0000
-2.1206 <s> NEHEMIAH 0.0000
-2.1206 <s> NUMBERS 0.0000
-2.1206 <s> OBADIAH 0.0000
-2.1206 <s> PHILEMON 0.0000
-2.1206 <s> PHILIPPIANS 0.0000
-2.1206 <s> PROVERBS 0.0000
-2.1206 <s> PSALMS 0.0000
-2.1206 <s> REVELATIONS 0.0000
-2.1206 <s> ROMANS 0.0000
-2.1206 <s> RUTH 0.0000
-1.2175 <s> SECOND 0.0000
-2.1206 <s> SONGS 0.0000
-2.1206 <s> THIRD 0.0000
-2.1206 <s> TITUS 0.0000
-2.1206 <s> ZECHARIAH 0.0000
-2.1206 <s> ZEPHANIAH 0.0000
-0.3010 ACTS </s> -0.3010
-0.3010 AMOS </s> -0.3010
-0.3010 CHRONICLES </s> -0.3010
-0.3010 COLOSSIANS </s> -0.3010
-0.3010 CORINTHIANS </s> -0.3010
-0.3010 CORITHIANS </s> -0.3010
-0.3010 DANIEL </s> -0.3010
-0.3010 DEUTERONOMY </s> -0.3010
-0.3010 ECCLESIASTES </s> -0.3010
-0.3010 EPHESIANS </s> -0.3010
-0.3010 ESTHER </s> -0.3010
-0.3010 EXODUS </s> -0.3010
-0.3010 EZEKIEL </s> -0.3010
-0.3010 EZRA </s> -0.3010
-1.2041 FIRST CHRONICLES 0.0000
-1.2041 FIRST CORINTHIANS 0.0000
-1.2041 FIRST JOHN 0.0000
-1.2041 FIRST KINGS 0.0000
-1.2041 FIRST PETER 0.0000
-1.2041 FIRST SAMUEL 0.0000
-1.2041 FIRST THESSALONIANS 0.0000
-1.2041 FIRST TIMOTHY 0.0000
-0.3010 GALATIANS </s> -0.3010
-0.3010 GENESIS </s> -0.3010
-0.3010 HABAKKUK </s> -0.3010
-0.3010 HAGGAI </s> -0.3010
-0.3010 HEBREWS </s> -0.3010
-0.3010 HOSEA </s> -0.3010
-0.3010 ISAIAH </s> -0.3010
-0.3010 JAMES </s> -0.3010
-0.3010 JEREMIAH </s> -0.3010
-0.3010 JOB </s> -0.3010
-0.3010 JOEL </s> -0.3010
-0.3010 JOHN </s> -0.3010
-0.3010 JONAH </s> -0.3010
-0.3010 JOSHUA </s> -0.3010
-0.3010 JUDE </s> -0.3010
-0.3010 JUDGES </s> -0.3010
-0.3010 KINGS </s> -0.3010
-0.3010 LAMENTATIONS </s> -0.3010
-0.3010 LEVITICUS </s> -0.3010
-0.3010 LUKE </s> -0.3010
-0.3010 MALACHI </s> -0.3010
-0.3010 MARK </s> -0.3010
-0.3010 MATTHEW </s> -0.3010
-0.3010 MICAH </s> -0.3010
-0.3010 NAHUM </s> -0.3010
-0.3010 NEHEMIAH </s> -0.3010
-0.3010 NUMBERS </s> -0.3010
-0.3010 OBADIAH </s> -0.3010
-0.3010 OF SOLOMON 0.0000
-0.3010 PETER </s> -0.3010
-0.3010 PHILEMON </s> -0.3010
-0.3010 PHILIPPIANS </s> -0.3010
-0.3010 PROVERBS </s> -0.3010
-0.3010 PSALMS </s> -0.3010
-0.3010 REVELATIONS </s> -0.3010
-0.3010 ROMANS </s> -0.3010
-0.3010 RUTH </s> -0.3010
-0.3010 SAMUEL </s> -0.3010
-1.2041 SECOND CHRONICLES 0.0000
-1.2041 SECOND CORITHIANS 0.0000
-1.2041 SECOND JOHN 0.0000
-1.2041 SECOND KINGS 0.0000
-1.2041 SECOND PETER 0.0000
-1.2041 SECOND SAMUEL 0.0000
-1.2041 SECOND THESSALONIANS 0.0000
-1.2041 SECOND TIMOTHY 0.0000
-0.3010 SOLOMON </s> -0.3010
-0.3010 SONGS OF 0.0000
-0.3010 THESSALONIANS </s> -0.3010
-0.3010 THIRD JOHN 0.0000
-0.3010 TIMOTHY </s> -0.3010
-0.3010 TITUS </s> -0.3010
-0.3010 ZECHARIAH </s> -0.3010
-0.3010 ZEPHANIAH </s> -0.3010

\3-grams:
-0.3010 <s> ACTS </s>
-0.3010 <s> AMOS </s>
-0.3010 <s> COLOSSIANS </s>
-0.3010 <s> DANIEL </s>
-0.3010 <s> DEUTERONOMY </s>
-0.3010 <s> ECCLESIASTES </s>
-0.3010 <s> EPHESIANS </s>
-0.3010 <s> ESTHER </s>
-0.3010 <s> EXODUS </s>
-0.3010 <s> EZEKIEL </s>
-0.3010 <s> EZRA </s>
-1.2041 <s> FIRST CHRONICLES
-1.2041 <s> FIRST CORINTHIANS
-1.2041 <s> FIRST JOHN
-1.2041 <s> FIRST KINGS
-1.2041 <s> FIRST PETER
-1.2041 <s> FIRST SAMUEL
-1.2041 <s> FIRST THESSALONIANS
-1.2041 <s> FIRST TIMOTHY
-0.3010 <s> GALATIANS </s>
-0.3010 <s> GENESIS </s>
-0.3010 <s> HABAKKUK </s>
-0.3010 <s> HAGGAI </s>
-0.3010 <s> HEBREWS </s>
-0.3010 <s> HOSEA </s>
-0.3010 <s> ISAIAH </s>
-0.3010 <s> JAMES </s>
-0.3010 <s> JEREMIAH </s>
-0.3010 <s> JOB </s>
-0.3010 <s> JOEL </s>
-0.3010 <s> JOHN </s>
-0.3010 <s> JONAH </s>
-0.3010 <s> JOSHUA </s>
-0.3010 <s> JUDE </s>
-0.3010 <s> JUDGES </s>
-0.3010 <s> LAMENTATIONS </s>
-0.3010 <s> LEVITICUS </s>
-0.3010 <s> LUKE </s>
-0.3010 <s> MALACHI </s>
-0.3010 <s> MARK </s>
-0.3010 <s> MATTHEW </s>
-0.3010 <s> MICAH </s>
-0.3010 <s> NAHUM </s>
-0.3010 <s> NEHEMIAH </s>
-0.3010 <s> NUMBERS </s>
-0.3010 <s> OBADIAH </s>
-0.3010 <s> PHILEMON </s>
-0.3010 <s> PHILIPPIANS </s>
-0.3010 <s> PROVERBS </s>
-0.3010 <s> PSALMS </s>
-0.3010 <s> REVELATIONS </s>
-0.3010 <s> ROMANS </s>
-0.3010 <s> RUTH </s>
-1.2041 <s> SECOND CHRONICLES
-1.2041 <s> SECOND CORITHIANS
-1.2041 <s> SECOND JOHN
-1.2041 <s> SECOND KINGS
-1.2041 <s> SECOND PETER
-1.2041 <s> SECOND SAMUEL
-1.2041 <s> SECOND THESSALONIANS
-1.2041 <s> SECOND TIMOTHY
-0.3010 <s> SONGS OF
-0.3010 <s> THIRD JOHN
-0.3010 <s> TITUS </s>
-0.3010 <s> ZECHARIAH </s>
-0.3010 <s> ZEPHANIAH </s>
-0.3010 FIRST CHRONICLES </s>
-0.3010 FIRST CORINTHIANS </s>
-0.3010 FIRST JOHN </s>
-0.3010 FIRST KINGS </s>
-0.3010 FIRST PETER </s>
-0.3010 FIRST SAMUEL </s>
-0.3010 FIRST THESSALONIANS </s>
-0.3010 FIRST TIMOTHY </s>
-0.3010 OF SOLOMON </s>
-0.3010 SECOND CHRONICLES </s>
-0.3010 SECOND CORITHIANS </s>
-0.3010 SECOND JOHN </s>
-0.3010 SECOND KINGS </s>
-0.3010 SECOND PETER </s>
-0.3010 SECOND SAMUEL </s>
-0.3010 SECOND THESSALONIANS </s>
-0.3010 SECOND TIMOTHY </s>
-0.3010 SONGS OF SOLOMON
-0.3010 THIRD JOHN </s>

\end\
