Language model created by QuickLM on Wed Oct 22 19:00:47 EDT 2014
Copyright (c) 1996-2010 Carnegie Mellon University and Alexander I. Rudnicky

The model is in standard ARPA format, designed by Doug Paul while he was at MITRE.

The code that was used to produce this language model is available in Open Source.
Please visit http://www.speech.cs.cmu.edu/tools/ for more information

The (fixed) discount mass is 0.5. The backoffs are computed using the ratio method.
This model based on a corpus of 66 sentences and 65 words

\data\
ngram 1=65
ngram 2=129
ngram 3=137

\1-grams:
-0.9333 </s> -0.3010
-0.9333 <s> -0.2472
-2.7528 ACTS -0.2472
-2.7528 AMOS -0.2472
-2.4518 CHRONICLES -0.2472
-2.7528 COLOSSIANS -0.2472
-2.7528 CORINTHIANS -0.2472
-2.7528 CORITHIANS -0.2472
-2.7528 DANIEL -0.2472
-2.7528 DEUTERONOMY -0.2472
-2.7528 ECCLESIASTES -0.2472
-2.7528 EPHESIANS -0.2472
-2.7528 ESTHER -0.2472
-2.7528 EXODUS -0.2472
-2.7528 EZEKIEL -0.2472
-2.7528 EZRA -0.2472
-1.8497 FIRST -0.2878
-2.7528 GALATIANS -0.2472
-2.7528 GENESIS -0.2472
-2.7528 HABAKKUK -0.2472
-2.7528 HAGGAI -0.2472
-2.7528 HEBREWS -0.2472
-2.7528 HOSEA -0.2472
-2.7528 ISAIAH -0.2472
-2.7528 JAMES -0.2472
-2.7528 JEREMIAH -0.2472
-2.7528 JOB -0.2472
-2.7528 JOEL -0.2472
-2.1508 JOHN -0.2472
-2.7528 JONAH -0.2472
-2.7528 JOSHUA -0.2472
-2.7528 JUDE -0.2472
-2.7528 JUDGES -0.2472
-2.4518 KINGS -0.2472
-2.7528 LAMENTATIONS -0.2472
-2.7528 LEVITICUS -0.2472
-2.7528 LUKE -0.2472
-2.7528 MALACHI -0.2472
-2.7528 MARK -0.2472
-2.7528 MATTHEW -0.2472
-2.7528 MICAH -0.2472
-2.7528 NAHUM -0.2472
-2.7528 NEHEMIAH -0.2472
-2.7528 NUMBERS -0.2472
-2.7528 OBADIAH -0.2472
-2.7528 OF -0.3003
-2.4518 PETER -0.2472
-2.7528 PHILEMON -0.2472
-2.7528 PHILIPPIANS -0.2472
-2.7528 PROVERBS -0.2472
-2.7528 PSALMS -0.2472
-0.9333 READ -0.2446
-2.7528 REVELATIONS -0.2472
-2.7528 ROMANS -0.2472
-2.7528 RUTH -0.2472
-2.4518 SAMUEL -0.2472
-1.8497 SECOND -0.2878
-2.7528 SOLOMON -0.2472
-2.7528 SONGS -0.3003
-2.4518 THESSALONIANS -0.2472
-2.7528 THIRD -0.2979
-2.4518 TIMOTHY -0.2472
-2.7528 TITUS -0.2472
-2.7528 ZECHARIAH -0.2472
-2.7528 ZEPHANIAH -0.2472

\2-grams:
-0.3010 <s> READ -0.0000
-0.3010 ACTS </s> -0.3010
-0.3010 AMOS </s> -0.3010
-0.3010 CHRONICLES </s> -0.3010
-0.3010 COLOSSIANS </s> -0.3010
-0.3010 CORINTHIANS </s> -0.3010
-0.3010 CORITHIANS </s> -0.3010
-0.3010 DANIEL </s> -0.3010
-0.3010 DEUTERONOMY </s> -0.3010
-0.3010 ECCLESIASTES </s> -0.3010
-0.3010 EPHESIANS </s> -0.3010
-0.3010 ESTHER </s> -0.3010
-0.3010 EXODUS </s> -0.3010
-0.3010 EZEKIEL </s> -0.3010
-0.3010 EZRA </s> -0.3010
-1.2041 FIRST CHRONICLES 0.0000
-1.2041 FIRST CORINTHIANS 0.0000
-1.2041 FIRST JOHN 0.0000
-1.2041 FIRST KINGS 0.0000
-1.2041 FIRST PETER 0.0000
-1.2041 FIRST SAMUEL 0.0000
-1.2041 FIRST THESSALONIANS 0.0000
-1.2041 FIRST TIMOTHY 0.0000
-0.3010 GALATIANS </s> -0.3010
-0.3010 GENESIS </s> -0.3010
-0.3010 HABAKKUK </s> -0.3010
-0.3010 HAGGAI </s> -0.3010
-0.3010 HEBREWS </s> -0.3010
-0.3010 HOSEA </s> -0.3010
-0.3010 ISAIAH </s> -0.3010
-0.3010 JAMES </s> -0.3010
-0.3010 JEREMIAH </s> -0.3010
-0.3010 JOB </s> -0.3010
-0.3010 JOEL </s> -0.3010
-0.3010 JOHN </s> -0.3010
-0.3010 JONAH </s> -0.3010
-0.3010 JOSHUA </s> -0.3010
-0.3010 JUDE </s> -0.3010
-0.3010 JUDGES </s> -0.3010
-0.3010 KINGS </s> -0.3010
-0.3010 LAMENTATIONS </s> -0.3010
-0.3010 LEVITICUS </s> -0.3010
-0.3010 LUKE </s> -0.3010
-0.3010 MALACHI </s> -0.3010
-0.3010 MARK </s> -0.3010
-0.3010 MATTHEW </s> -0.3010
-0.3010 MICAH </s> -0.3010
-0.3010 NAHUM </s> -0.3010
-0.3010 NEHEMIAH </s> -0.3010
-0.3010 NUMBERS </s> -0.3010
-0.3010 OBADIAH </s> -0.3010
-0.3010 OF SOLOMON 0.0000
-0.3010 PETER </s> -0.3010
-0.3010 PHILEMON </s> -0.3010
-0.3010 PHILIPPIANS </s> -0.3010
-0.3010 PROVERBS </s> -0.3010
-0.3010 PSALMS </s> -0.3010
-2.1206 READ ACTS 0.0000
-2.1206 READ AMOS 0.0000
-2.1206 READ COLOSSIANS 0.0000
-2.1206 READ DANIEL 0.0000
-2.1206 READ DEUTERONOMY 0.0000
-2.1206 READ ECCLESIASTES 0.0000
-2.1206 READ EPHESIANS 0.0000
-2.1206 READ ESTHER 0.0000
-2.1206 READ EXODUS 0.0000
-2.1206 READ EZEKIEL 0.0000
-2.1206 READ EZRA 0.0000
-1.2175 READ FIRST 0.0000
-2.1206 READ GALATIANS 0.0000
-2.1206 READ GENESIS 0.0000
-2.1206 READ HABAKKUK 0.0000
-2.1206 READ HAGGAI 0.0000
-2.1206 READ HEBREWS 0.0000
-2.1206 READ HOSEA 0.0000
-2.1206 READ ISAIAH 0.0000
-2.1206 READ JAMES 0.0000
-2.1206 READ JEREMIAH 0.0000
-2.1206 READ JOB 0.0000
-2.1206 READ JOEL 0.0000
-2.1206 READ JOHN 0.0000
-2.1206 READ JONAH 0.0000
-2.1206 READ JOSHUA 0.0000
-2.1206 READ JUDE 0.0000
-2.1206 READ JUDGES 0.0000
-2.1206 READ LAMENTATIONS 0.0000
-2.1206 READ LEVITICUS 0.0000
-2.1206 READ LUKE 0.0000
-2.1206 READ MALACHI 0.0000
-2.1206 READ MARK 0.0000
-2.1206 READ MATTHEW 0.0000
-2.1206 READ MICAH 0.0000
-2.1206 READ NAHUM 0.0000
-2.1206 READ NEHEMIAH 0.0000
-2.1206 READ NUMBERS 0.0000
-2.1206 READ OBADIAH 0.0000
-2.1206 READ PHILEMON 0.0000
-2.1206 READ PHILIPPIANS 0.0000
-2.1206 READ PROVERBS 0.0000
-2.1206 READ PSALMS 0.0000
-2.1206 READ REVELATIONS 0.0000
-2.1206 READ ROMANS 0.0000
-2.1206 READ RUTH 0.0000
-1.2175 READ SECOND 0.0000
-2.1206 READ SONGS 0.0000
-2.1206 READ THIRD 0.0000
-2.1206 READ TITUS 0.0000
-2.1206 READ ZECHARIAH 0.0000
-2.1206 READ ZEPHANIAH 0.0000
-0.3010 REVELATIONS </s> -0.3010
-0.3010 ROMANS </s> -0.3010
-0.3010 RUTH </s> -0.3010
-0.3010 SAMUEL </s> -0.3010
-1.2041 SECOND CHRONICLES 0.0000
-1.2041 SECOND CORITHIANS 0.0000
-1.2041 SECOND JOHN 0.0000
-1.2041 SECOND KINGS 0.0000
-1.2041 SECOND PETER 0.0000
-1.2041 SECOND SAMUEL 0.0000
-1.2041 SECOND THESSALONIANS 0.0000
-1.2041 SECOND TIMOTHY 0.0000
-0.3010 SOLOMON </s> -0.3010
-0.3010 SONGS OF 0.0000
-0.3010 THESSALONIANS </s> -0.3010
-0.3010 THIRD JOHN 0.0000
-0.3010 TIMOTHY </s> -0.3010
-0.3010 TITUS </s> -0.3010
-0.3010 ZECHARIAH </s> -0.3010
-0.3010 ZEPHANIAH </s> -0.3010

\3-grams:
-2.1206 <s> READ ACTS
-2.1206 <s> READ AMOS
-2.1206 <s> READ COLOSSIANS
-2.1206 <s> READ DANIEL
-2.1206 <s> READ DEUTERONOMY
-2.1206 <s> READ ECCLESIASTES
-2.1206 <s> READ EPHESIANS
-2.1206 <s> READ ESTHER
-2.1206 <s> READ EXODUS
-2.1206 <s> READ EZEKIEL
-2.1206 <s> READ EZRA
-1.2175 <s> READ FIRST
-2.1206 <s> READ GALATIANS
-2.1206 <s> READ GENESIS
-2.1206 <s> READ HABAKKUK
-2.1206 <s> READ HAGGAI
-2.1206 <s> READ HEBREWS
-2.1206 <s> READ HOSEA
-2.1206 <s> READ ISAIAH
-2.1206 <s> READ JAMES
-2.1206 <s> READ JEREMIAH
-2.1206 <s> READ JOB
-2.1206 <s> READ JOEL
-2.1206 <s> READ JOHN
-2.1206 <s> READ JONAH
-2.1206 <s> READ JOSHUA
-2.1206 <s> READ JUDE
-2.1206 <s> READ JUDGES
-2.1206 <s> READ LAMENTATIONS
-2.1206 <s> READ LEVITICUS
-2.1206 <s> READ LUKE
-2.1206 <s> READ MALACHI
-2.1206 <s> READ MARK
-2.1206 <s> READ MATTHEW
-2.1206 <s> READ MICAH
-2.1206 <s> READ NAHUM
-2.1206 <s> READ NEHEMIAH
-2.1206 <s> READ NUMBERS
-2.1206 <s> READ OBADIAH
-2.1206 <s> READ PHILEMON
-2.1206 <s> READ PHILIPPIANS
-2.1206 <s> READ PROVERBS
-2.1206 <s> READ PSALMS
-2.1206 <s> READ REVELATIONS
-2.1206 <s> READ ROMANS
-2.1206 <s> READ RUTH
-1.2175 <s> READ SECOND
-2.1206 <s> READ SONGS
-2.1206 <s> READ THIRD
-2.1206 <s> READ TITUS
-2.1206 <s> READ ZECHARIAH
-2.1206 <s> READ ZEPHANIAH
-0.3010 FIRST CHRONICLES </s>
-0.3010 FIRST CORINTHIANS </s>
-0.3010 FIRST JOHN </s>
-0.3010 FIRST KINGS </s>
-0.3010 FIRST PETER </s>
-0.3010 FIRST SAMUEL </s>
-0.3010 FIRST THESSALONIANS </s>
-0.3010 FIRST TIMOTHY </s>
-0.3010 OF SOLOMON </s>
-0.3010 READ ACTS </s>
-0.3010 READ AMOS </s>
-0.3010 READ COLOSSIANS </s>
-0.3010 READ DANIEL </s>
-0.3010 READ DEUTERONOMY </s>
-0.3010 READ ECCLESIASTES </s>
-0.3010 READ EPHESIANS </s>
-0.3010 READ ESTHER </s>
-0.3010 READ EXODUS </s>
-0.3010 READ EZEKIEL </s>
-0.3010 READ EZRA </s>
-1.2041 READ FIRST CHRONICLES
-1.2041 READ FIRST CORINTHIANS
-1.2041 READ FIRST JOHN
-1.2041 READ FIRST KINGS
-1.2041 READ FIRST PETER
-1.2041 READ FIRST SAMUEL
-1.2041 READ FIRST THESSALONIANS
-1.2041 READ FIRST TIMOTHY
-0.3010 READ GALATIANS </s>
-0.3010 READ GENESIS </s>
-0.3010 READ HABAKKUK </s>
-0.3010 READ HAGGAI </s>
-0.3010 READ HEBREWS </s>
-0.3010 READ HOSEA </s>
-0.3010 READ ISAIAH </s>
-0.3010 READ JAMES </s>
-0.3010 READ JEREMIAH </s>
-0.3010 READ JOB </s>
-0.3010 READ JOEL </s>
-0.3010 READ JOHN </s>
-0.3010 READ JONAH </s>
-0.3010 READ JOSHUA </s>
-0.3010 READ JUDE </s>
-0.3010 READ JUDGES </s>
-0.3010 READ LAMENTATIONS </s>
-0.3010 READ LEVITICUS </s>
-0.3010 READ LUKE </s>
-0.3010 READ MALACHI </s>
-0.3010 READ MARK </s>
-0.3010 READ MATTHEW </s>
-0.3010 READ MICAH </s>
-0.3010 READ NAHUM </s>
-0.3010 READ NEHEMIAH </s>
-0.3010 READ NUMBERS </s>
-0.3010 READ OBADIAH </s>
-0.3010 READ PHILEMON </s>
-0.3010 READ PHILIPPIANS </s>
-0.3010 READ PROVERBS </s>
-0.3010 READ PSALMS </s>
-0.3010 READ REVELATIONS </s>
-0.3010 READ ROMANS </s>
-0.3010 READ RUTH </s>
-1.2041 READ SECOND CHRONICLES
-1.2041 READ SECOND CORITHIANS
-1.2041 READ SECOND JOHN
-1.2041 READ SECOND KINGS
-1.2041 READ SECOND PETER
-1.2041 READ SECOND SAMUEL
-1.2041 READ SECOND THESSALONIANS
-1.2041 READ SECOND TIMOTHY
-0.3010 READ SONGS OF
-0.3010 READ THIRD JOHN
-0.3010 READ TITUS </s>
-0.3010 READ ZECHARIAH </s>
-0.3010 READ ZEPHANIAH </s>
-0.3010 SECOND CHRONICLES </s>
-0.3010 SECOND CORITHIANS </s>
-0.3010 SECOND JOHN </s>
-0.3010 SECOND KINGS </s>
-0.3010 SECOND PETER </s>
-0.3010 SECOND SAMUEL </s>
-0.3010 SECOND THESSALONIANS </s>
-0.3010 SECOND TIMOTHY </s>
-0.3010 SONGS OF SOLOMON
-0.3010 THIRD JOHN </s>

\end\
