Language model created by QuickLM on Wed Oct 29 17:37:26 EDT 2014
Copyright (c) 1996-2010 Carnegie Mellon University and Alexander I. Rudnicky

The model is in standard ARPA format, designed by Doug Paul while he was at MITRE.

The code that was used to produce this language model is available in Open Source.
Please visit http://www.speech.cs.cmu.edu/tools/ for more information

The (fixed) discount mass is 0.5. The backoffs are computed using the ratio method.
This model based on a corpus of 28 sentences and 30 words

\data\
ngram 1=30
ngram 2=56
ngram 3=28

\1-grams:
-2.2253 1 -0.2218
-2.2253 10 -0.2218
-2.2253 100 -0.2218
-2.2253 11 -0.2218
-2.2253 12 -0.2218
-2.2253 13 -0.2218
-2.2253 14 -0.2218
-2.2253 15 -0.2218
-2.2253 16 -0.2218
-2.2253 17 -0.2218
-2.2253 18 -0.2218
-2.2253 19 -0.2218
-2.2253 2 -0.2218
-2.2253 20 -0.2218
-2.2253 3 -0.2218
-2.2253 30 -0.2218
-2.2253 4 -0.2218
-2.2253 40 -0.2218
-2.2253 5 -0.2218
-2.2253 50 -0.2218
-2.2253 6 -0.2218
-2.2253 60 -0.2218
-2.2253 7 -0.2218
-2.2253 70 -0.2218
-2.2253 8 -0.2218
-2.2253 80 -0.2218
-2.2253 9 -0.2218
-2.2253 90 -0.2218
-0.7782 </s> -0.3010
-0.7782 <s> -0.2218

\2-grams:
-0.3010 1 </s> -0.3010
-0.3010 10 </s> -0.3010
-0.3010 100 </s> -0.3010
-0.3010 11 </s> -0.3010
-0.3010 12 </s> -0.3010
-0.3010 13 </s> -0.3010
-0.3010 14 </s> -0.3010
-0.3010 15 </s> -0.3010
-0.3010 16 </s> -0.3010
-0.3010 17 </s> -0.3010
-0.3010 18 </s> -0.3010
-0.3010 19 </s> -0.3010
-0.3010 2 </s> -0.3010
-0.3010 20 </s> -0.3010
-0.3010 3 </s> -0.3010
-0.3010 30 </s> -0.3010
-0.3010 4 </s> -0.3010
-0.3010 40 </s> -0.3010
-0.3010 5 </s> -0.3010
-0.3010 50 </s> -0.3010
-0.3010 6 </s> -0.3010
-0.3010 60 </s> -0.3010
-0.3010 7 </s> -0.3010
-0.3010 70 </s> -0.3010
-0.3010 8 </s> -0.3010
-0.3010 80 </s> -0.3010
-0.3010 9 </s> -0.3010
-0.3010 90 </s> -0.3010
-1.7482 <s> 1 0.0000
-1.7482 <s> 10 0.0000
-1.7482 <s> 100 0.0000
-1.7482 <s> 11 0.0000
-1.7482 <s> 12 0.0000
-1.7482 <s> 13 0.0000
-1.7482 <s> 14 0.0000
-1.7482 <s> 15 0.0000
-1.7482 <s> 16 0.0000
-1.7482 <s> 17 0.0000
-1.7482 <s> 18 0.0000
-1.7482 <s> 19 0.0000
-1.7482 <s> 2 0.0000
-1.7482 <s> 20 0.0000
-1.7482 <s> 3 0.0000
-1.7482 <s> 30 0.0000
-1.7482 <s> 4 0.0000
-1.7482 <s> 40 0.0000
-1.7482 <s> 5 0.0000
-1.7482 <s> 50 0.0000
-1.7482 <s> 6 0.0000
-1.7482 <s> 60 0.0000
-1.7482 <s> 7 0.0000
-1.7482 <s> 70 0.0000
-1.7482 <s> 8 0.0000
-1.7482 <s> 80 0.0000
-1.7482 <s> 9 0.0000
-1.7482 <s> 90 0.0000

\3-grams:
-0.3010 <s> 1 </s>
-0.3010 <s> 10 </s>
-0.3010 <s> 100 </s>
-0.3010 <s> 11 </s>
-0.3010 <s> 12 </s>
-0.3010 <s> 13 </s>
-0.3010 <s> 14 </s>
-0.3010 <s> 15 </s>
-0.3010 <s> 16 </s>
-0.3010 <s> 17 </s>
-0.3010 <s> 18 </s>
-0.3010 <s> 19 </s>
-0.3010 <s> 2 </s>
-0.3010 <s> 20 </s>
-0.3010 <s> 3 </s>
-0.3010 <s> 30 </s>
-0.3010 <s> 4 </s>
-0.3010 <s> 40 </s>
-0.3010 <s> 5 </s>
-0.3010 <s> 50 </s>
-0.3010 <s> 6 </s>
-0.3010 <s> 60 </s>
-0.3010 <s> 7 </s>
-0.3010 <s> 70 </s>
-0.3010 <s> 8 </s>
-0.3010 <s> 80 </s>
-0.3010 <s> 9 </s>
-0.3010 <s> 90 </s>

\end\
