Language model created by QuickLM on Wed Oct 15 13:53:26 EDT 2014
Copyright (c) 1996-2010 Carnegie Mellon University and Alexander I. Rudnicky

The model is in standard ARPA format, designed by Doug Paul while he was at MITRE.

The code that was used to produce this language model is available in Open Source.
Please visit http://www.speech.cs.cmu.edu/tools/ for more information

The (fixed) discount mass is 0.5. The backoffs are computed using the ratio method.
This model based on a corpus of 67 sentences and 67 words

\data\
ngram 1=67
ngram 2=134
ngram 3=142

\1-grams:
-0.9388 </s> -0.3010
-0.9388 <s> -0.2479
-2.7649 AGUNG -0.2479
-2.7649 AMOS -0.2479
-2.7649 AMSAL -0.2479
-2.7649 AYUB -0.2479
-0.9454 BACA -0.2454
-2.7649 BIBLE -0.2479
-2.7649 BILANGAN -0.2479
-2.7649 CLOSE -0.3003
-2.7649 DANIEL -0.2479
-1.8618 DUA -0.2858
-2.7649 EFESUS -0.2479
-2.7649 ESTER -0.2479
-2.7649 EZRA -0.2479
-2.7649 FILEMON -0.2479
-2.7649 FILIPI -0.2479
-2.7649 GALATIA -0.2479
-2.7649 HABAKUK -0.2479
-2.7649 HAGAI -0.2479
-2.4639 HAKIM -0.2462
-2.7649 HOSEA -0.2479
-2.7649 IBRANI -0.2479
-2.7649 IMAMAT -0.2479
-2.7649 KEJADIAN -0.2479
-2.7649 KELUARAN -0.2479
-2.7649 KIDUNG -0.3003
-2.7649 KISAH -0.3003
-2.7649 KOLOSE -0.2479
-2.4639 KORINTUS -0.2479
-2.7649 LUKAS -0.2479
-2.7649 MALEAKHI -0.2479
-2.7649 MARKUS -0.2479
-2.7649 MATIUS -0.2479
-2.7649 MAZMUR -0.2479
-2.7649 MIKHA -0.2479
-2.7649 NAHUM -0.2479
-2.7649 NEHEMIA -0.2479
-2.7649 OBAJA -0.2479
-2.7649 PARA -0.3003
-2.7649 PENGKHOTBAH -0.2479
-2.4639 PETRUS -0.2479
-2.1629 RAJA -0.2445
-2.7649 RASUL -0.2479
-2.7649 RATAPAN -0.2479
-2.7649 ROMA -0.2479
-2.7649 RUT -0.2479
-2.4639 SAMUEL -0.2479
-1.8618 SATU -0.2858
-2.4639 TAWARIKH -0.2479
-2.4639 TESALONIKA -0.2479
-2.7649 TIGA -0.2980
-2.4639 TIMOTIUS -0.2479
-2.7649 TITUS -0.2479
-2.7649 ULANGAN -0.2479
-2.7649 WAHYU -0.2479
-2.7649 YAKOBUS -0.2479
-2.7649 YEHEZKIEL -0.2479
-2.7649 YEREMIA -0.2479
-2.7649 YESAYA -0.2479
-2.7649 YOEL -0.2479
-2.1629 YOHANES -0.2479
-2.7649 YOSUA -0.2479
-2.7649 YUDAS -0.2479
-2.7649 YUNUS -0.2479
-2.7649 ZAKHARIA -0.2479
-2.7649 ZEFANYA -0.2479

\2-grams:
-0.3076 <s> BACA -0.0000
-2.1271 <s> CLOSE 0.0000
-0.3010 AGUNG </s> -0.3010
-0.3010 AMOS </s> -0.3010
-0.3010 AMSAL </s> -0.3010
-0.3010 AYUB </s> -0.3010
-2.1206 BACA AMOS 0.0000
-2.1206 BACA AMSAL 0.0000
-2.1206 BACA AYUB 0.0000
-2.1206 BACA BILANGAN 0.0000
-2.1206 BACA DANIEL 0.0000
-1.2175 BACA DUA 0.0000
-2.1206 BACA EFESUS 0.0000
-2.1206 BACA ESTER 0.0000
-2.1206 BACA EZRA 0.0000
-2.1206 BACA FILEMON 0.0000
-2.1206 BACA FILIPI 0.0000
-2.1206 BACA GALATIA 0.0000
-2.1206 BACA HABAKUK 0.0000
-2.1206 BACA HAGAI 0.0000
-2.1206 BACA HAKIM -0.1761
-2.1206 BACA HOSEA 0.0000
-2.1206 BACA IBRANI 0.0000
-2.1206 BACA IMAMAT 0.0000
-2.1206 BACA KEJADIAN 0.0000
-2.1206 BACA KELUARAN 0.0000
-2.1206 BACA KIDUNG 0.0000
-2.1206 BACA KISAH 0.0000
-2.1206 BACA KOLOSE 0.0000
-2.1206 BACA LUKAS 0.0000
-2.1206 BACA MALEAKHI 0.0000
-2.1206 BACA MARKUS 0.0000
-2.1206 BACA MATIUS 0.0000
-2.1206 BACA MAZMUR 0.0000
-2.1206 BACA MIKHA 0.0000
-2.1206 BACA NAHUM 0.0000
-2.1206 BACA NEHEMIA 0.0000
-2.1206 BACA OBAJA 0.0000
-2.1206 BACA PENGKHOTBAH 0.0000
-2.1206 BACA RATAPAN 0.0000
-2.1206 BACA ROMA 0.0000
-2.1206 BACA RUT 0.0000
-1.2175 BACA SATU 0.0000
-2.1206 BACA TIGA 0.0000
-2.1206 BACA TITUS 0.0000
-2.1206 BACA ULANGAN 0.0000
-2.1206 BACA WAHYU 0.0000
-2.1206 BACA YAKOBUS 0.0000
-2.1206 BACA YEHEZKIEL 0.0000
-2.1206 BACA YEREMIA 0.0000
-2.1206 BACA YESAYA 0.0000
-2.1206 BACA YOEL 0.0000
-2.1206 BACA YOHANES 0.0000
-2.1206 BACA YOSUA 0.0000
-2.1206 BACA YUDAS 0.0000
-2.1206 BACA YUNUS 0.0000
-2.1206 BACA ZAKHARIA 0.0000
-2.1206 BACA ZEFANYA 0.0000
-0.3010 BIBLE </s> -0.3010
-0.3010 BILANGAN </s> -0.3010
-0.3010 CLOSE BIBLE 0.0000
-0.3010 DANIEL </s> -0.3010
-1.2041 DUA KORINTUS 0.0000
-1.2041 DUA PETRUS 0.0000
-1.2041 DUA RAJA -0.1761
-1.2041 DUA SAMUEL 0.0000
-1.2041 DUA TAWARIKH 0.0000
-1.2041 DUA TESALONIKA 0.0000
-1.2041 DUA TIMOTIUS 0.0000
-1.2041 DUA YOHANES 0.0000
-0.3010 EFESUS </s> -0.3010
-0.3010 ESTER </s> -0.3010
-0.3010 EZRA </s> -0.3010
-0.3010 FILEMON </s> -0.3010
-0.3010 FILIPI </s> -0.3010
-0.3010 GALATIA </s> -0.3010
-0.3010 HABAKUK </s> -0.3010
-0.3010 HAGAI </s> -0.3010
-0.6021 HAKIM </s> -0.3010
-0.6021 HAKIM HAKIM -0.1761
-0.3010 HOSEA </s> -0.3010
-0.3010 IBRANI </s> -0.3010
-0.3010 IMAMAT </s> -0.3010
-0.3010 KEJADIAN </s> -0.3010
-0.3010 KELUARAN </s> -0.3010
-0.3010 KIDUNG AGUNG 0.0000
-0.3010 KISAH PARA 0.0000
-0.3010 KOLOSE </s> -0.3010
-0.3010 KORINTUS </s> -0.3010
-0.3010 LUKAS </s> -0.3010
-0.3010 MALEAKHI </s> -0.3010
-0.3010 MARKUS </s> -0.3010
-0.3010 MATIUS </s> -0.3010
-0.3010 MAZMUR </s> -0.3010
-0.3010 MIKHA </s> -0.3010
-0.3010 NAHUM </s> -0.3010
-0.3010 NEHEMIA </s> -0.3010
-0.3010 OBAJA </s> -0.3010
-0.3010 PARA RASUL 0.0000
-0.3010 PENGKHOTBAH </s> -0.3010
-0.3010 PETRUS </s> -0.3010
-0.6021 RAJA </s> -0.3010
-0.6021 RAJA RAJA -0.1761
-0.3010 RASUL </s> -0.3010
-0.3010 RATAPAN </s> -0.3010
-0.3010 ROMA </s> -0.3010
-0.3010 RUT </s> -0.3010
-0.3010 SAMUEL </s> -0.3010
-1.2041 SATU KORINTUS 0.0000
-1.2041 SATU PETRUS 0.0000
-1.2041 SATU RAJA -0.1761
-1.2041 SATU SAMUEL 0.0000
-1.2041 SATU TAWARIKH 0.0000
-1.2041 SATU TESALONIKA 0.0000
-1.2041 SATU TIMOTIUS 0.0000
-1.2041 SATU YOHANES 0.0000
-0.3010 TAWARIKH </s> -0.3010
-0.3010 TESALONIKA </s> -0.3010
-0.3010 TIGA YOHANES 0.0000
-0.3010 TIMOTIUS </s> -0.3010
-0.3010 TITUS </s> -0.3010
-0.3010 ULANGAN </s> -0.3010
-0.3010 WAHYU </s> -0.3010
-0.3010 YAKOBUS </s> -0.3010
-0.3010 YEHEZKIEL </s> -0.3010
-0.3010 YEREMIA </s> -0.3010
-0.3010 YESAYA </s> -0.3010
-0.3010 YOEL </s> -0.3010
-0.3010 YOHANES </s> -0.3010
-0.3010 YOSUA </s> -0.3010
-0.3010 YUDAS </s> -0.3010
-0.3010 YUNUS </s> -0.3010
-0.3010 ZAKHARIA </s> -0.3010
-0.3010 ZEFANYA </s> -0.3010

\3-grams:
-2.1206 <s> BACA AMOS
-2.1206 <s> BACA AMSAL
-2.1206 <s> BACA AYUB
-2.1206 <s> BACA BILANGAN
-2.1206 <s> BACA DANIEL
-1.2175 <s> BACA DUA
-2.1206 <s> BACA EFESUS
-2.1206 <s> BACA ESTER
-2.1206 <s> BACA EZRA
-2.1206 <s> BACA FILEMON
-2.1206 <s> BACA FILIPI
-2.1206 <s> BACA GALATIA
-2.1206 <s> BACA HABAKUK
-2.1206 <s> BACA HAGAI
-2.1206 <s> BACA HAKIM
-2.1206 <s> BACA HOSEA
-2.1206 <s> BACA IBRANI
-2.1206 <s> BACA IMAMAT
-2.1206 <s> BACA KEJADIAN
-2.1206 <s> BACA KELUARAN
-2.1206 <s> BACA KIDUNG
-2.1206 <s> BACA KISAH
-2.1206 <s> BACA KOLOSE
-2.1206 <s> BACA LUKAS
-2.1206 <s> BACA MALEAKHI
-2.1206 <s> BACA MARKUS
-2.1206 <s> BACA MATIUS
-2.1206 <s> BACA MAZMUR
-2.1206 <s> BACA MIKHA
-2.1206 <s> BACA NAHUM
-2.1206 <s> BACA NEHEMIA
-2.1206 <s> BACA OBAJA
-2.1206 <s> BACA PENGKHOTBAH
-2.1206 <s> BACA RATAPAN
-2.1206 <s> BACA ROMA
-2.1206 <s> BACA RUT
-1.2175 <s> BACA SATU
-2.1206 <s> BACA TIGA
-2.1206 <s> BACA TITUS
-2.1206 <s> BACA ULANGAN
-2.1206 <s> BACA WAHYU
-2.1206 <s> BACA YAKOBUS
-2.1206 <s> BACA YEHEZKIEL
-2.1206 <s> BACA YEREMIA
-2.1206 <s> BACA YESAYA
-2.1206 <s> BACA YOEL
-2.1206 <s> BACA YOHANES
-2.1206 <s> BACA YOSUA
-2.1206 <s> BACA YUDAS
-2.1206 <s> BACA YUNUS
-2.1206 <s> BACA ZAKHARIA
-2.1206 <s> BACA ZEFANYA
-0.3010 <s> CLOSE BIBLE
-0.3010 BACA AMOS </s>
-0.3010 BACA AMSAL </s>
-0.3010 BACA AYUB </s>
-0.3010 BACA BILANGAN </s>
-0.3010 BACA DANIEL </s>
-1.2041 BACA DUA KORINTUS
-1.2041 BACA DUA PETRUS
-1.2041 BACA DUA RAJA
-1.2041 BACA DUA SAMUEL
-1.2041 BACA DUA TAWARIKH
-1.2041 BACA DUA TESALONIKA
-1.2041 BACA DUA TIMOTIUS
-1.2041 BACA DUA YOHANES
-0.3010 BACA EFESUS </s>
-0.3010 BACA ESTER </s>
-0.3010 BACA EZRA </s>
-0.3010 BACA FILEMON </s>
-0.3010 BACA FILIPI </s>
-0.3010 BACA GALATIA </s>
-0.3010 BACA HABAKUK </s>
-0.3010 BACA HAGAI </s>
-0.3010 BACA HAKIM HAKIM
-0.3010 BACA HOSEA </s>
-0.3010 BACA IBRANI </s>
-0.3010 BACA IMAMAT </s>
-0.3010 BACA KEJADIAN </s>
-0.3010 BACA KELUARAN </s>
-0.3010 BACA KIDUNG AGUNG
-0.3010 BACA KISAH PARA
-0.3010 BACA KOLOSE </s>
-0.3010 BACA LUKAS </s>
-0.3010 BACA MALEAKHI </s>
-0.3010 BACA MARKUS </s>
-0.3010 BACA MATIUS </s>
-0.3010 BACA MAZMUR </s>
-0.3010 BACA MIKHA </s>
-0.3010 BACA NAHUM </s>
-0.3010 BACA NEHEMIA </s>
-0.3010 BACA OBAJA </s>
-0.3010 BACA PENGKHOTBAH </s>
-0.3010 BACA RATAPAN </s>
-0.3010 BACA ROMA </s>
-0.3010 BACA RUT </s>
-1.2041 BACA SATU KORINTUS
-1.2041 BACA SATU PETRUS
-1.2041 BACA SATU RAJA
-1.2041 BACA SATU SAMUEL
-1.2041 BACA SATU TAWARIKH
-1.2041 BACA SATU TESALONIKA
-1.2041 BACA SATU TIMOTIUS
-1.2041 BACA SATU YOHANES
-0.3010 BACA TIGA YOHANES
-0.3010 BACA TITUS </s>
-0.3010 BACA ULANGAN </s>
-0.3010 BACA WAHYU </s>
-0.3010 BACA YAKOBUS </s>
-0.3010 BACA YEHEZKIEL </s>
-0.3010 BACA YEREMIA </s>
-0.3010 BACA YESAYA </s>
-0.3010 BACA YOEL </s>
-0.3010 BACA YOHANES </s>
-0.3010 BACA YOSUA </s>
-0.3010 BACA YUDAS </s>
-0.3010 BACA YUNUS </s>
-0.3010 BACA ZAKHARIA </s>
-0.3010 BACA ZEFANYA </s>
-0.3010 CLOSE BIBLE </s>
-0.3010 DUA KORINTUS </s>
-0.3010 DUA PETRUS </s>
-0.3010 DUA RAJA RAJA
-0.3010 DUA SAMUEL </s>
-0.3010 DUA TAWARIKH </s>
-0.3010 DUA TESALONIKA </s>
-0.3010 DUA TIMOTIUS </s>
-0.3010 DUA YOHANES </s>
-0.3010 HAKIM HAKIM </s>
-0.3010 KIDUNG AGUNG </s>
-0.3010 KISAH PARA RASUL
-0.3010 PARA RASUL </s>
-0.3010 RAJA RAJA </s>
-0.3010 SATU KORINTUS </s>
-0.3010 SATU PETRUS </s>
-0.3010 SATU RAJA RAJA
-0.3010 SATU SAMUEL </s>
-0.3010 SATU TAWARIKH </s>
-0.3010 SATU TESALONIKA </s>
-0.3010 SATU TIMOTIUS </s>
-0.3010 SATU YOHANES </s>
-0.3010 TIGA YOHANES </s>

\end\
