Language model created by QuickLM on Thu Oct 23 19:16:31 EDT 2014
Copyright (c) 1996-2010 Carnegie Mellon University and Alexander I. Rudnicky

The model is in standard ARPA format, designed by Doug Paul while he was at MITRE.

The code that was used to produce this language model is available in Open Source.
Please visit http://www.speech.cs.cmu.edu/tools/ for more information

The (fixed) discount mass is 0.5. The backoffs are computed using the ratio method.
This model based on a corpus of 95 sentences and 97 words

\data\
ngram 1=97
ngram 2=190
ngram 3=95

\1-grams:
-2.7559 1 -0.2218
-2.7559 10 -0.2218
-2.7559 100 -0.2218
-2.7559 101 -0.2218
-2.7559 102 -0.2218
-2.7559 103 -0.2218
-2.7559 104 -0.2218
-2.7559 105 -0.2218
-2.7559 11 -0.2218
-2.7559 110 -0.2218
-2.7559 111 -0.2218
-2.7559 112 -0.2218
-2.7559 113 -0.2218
-2.7559 114 -0.2218
-2.7559 115 -0.2218
-2.7559 116 -0.2218
-2.7559 117 -0.2218
-2.7559 118 -0.2218
-2.7559 119 -0.2218
-2.7559 12 -0.2218
-2.7559 120 -0.2218
-2.7559 13 -0.2218
-2.7559 135 -0.2218
-2.7559 136 -0.2218
-2.7559 137 -0.2218
-2.7559 14 -0.2218
-2.7559 140 -0.2218
-2.7559 141 -0.2218
-2.7559 142 -0.2218
-2.7559 143 -0.2218
-2.7559 144 -0.2218
-2.7559 145 -0.2218
-2.7559 146 -0.2218
-2.7559 147 -0.2218
-2.7559 148 -0.2218
-2.7559 149 -0.2218
-2.7559 15 -0.2218
-2.7559 150 -0.2218
-2.7559 16 -0.2218
-2.7559 17 -0.2218
-2.7559 18 -0.2218
-2.7559 19 -0.2218
-2.7559 2 -0.2218
-2.7559 20 -0.2218
-2.7559 21 -0.2218
-2.7559 22 -0.2218
-2.7559 23 -0.2218
-2.7559 24 -0.2218
-2.7559 25 -0.2218
-2.7559 3 -0.2218
-2.7559 30 -0.2218
-2.7559 31 -0.2218
-2.7559 32 -0.2218
-2.7559 33 -0.2218
-2.7559 34 -0.2218
-2.7559 35 -0.2218
-2.7559 36 -0.2218
-2.7559 37 -0.2218
-2.7559 38 -0.2218
-2.7559 39 -0.2218
-2.7559 4 -0.2218
-2.7559 40 -0.2218
-2.7559 41 -0.2218
-2.7559 42 -0.2218
-2.7559 43 -0.2218
-2.7559 44 -0.2218
-2.7559 45 -0.2218
-2.7559 5 -0.2218
-2.7559 50 -0.2218
-2.7559 51 -0.2218
-2.7559 52 -0.2218
-2.7559 53 -0.2218
-2.7559 54 -0.2218
-2.7559 55 -0.2218
-2.7559 56 -0.2218
-2.7559 57 -0.2218
-2.7559 58 -0.2218
-2.7559 59 -0.2218
-2.7559 6 -0.2218
-2.7559 60 -0.2218
-2.7559 62 -0.2218
-2.7559 63 -0.2218
-2.7559 64 -0.2218
-2.7559 65 -0.2218
-2.7559 66 -0.2218
-2.7559 7 -0.2218
-2.7559 70 -0.2218
-2.7559 71 -0.2218
-2.7559 72 -0.2218
-2.7559 73 -0.2218
-2.7559 8 -0.2218
-2.7559 80 -0.2218
-2.7559 9 -0.2218
-2.7559 98 -0.2218
-2.7559 99 -0.2218
-0.7782 </s> -0.3010
-0.7782 <s> -0.2218

\2-grams:
-0.3010 1 </s> -0.3010
-0.3010 10 </s> -0.3010
-0.3010 100 </s> -0.3010
-0.3010 101 </s> -0.3010
-0.3010 102 </s> -0.3010
-0.3010 103 </s> -0.3010
-0.3010 104 </s> -0.3010
-0.3010 105 </s> -0.3010
-0.3010 11 </s> -0.3010
-0.3010 110 </s> -0.3010
-0.3010 111 </s> -0.3010
-0.3010 112 </s> -0.3010
-0.3010 113 </s> -0.3010
-0.3010 114 </s> -0.3010
-0.3010 115 </s> -0.3010
-0.3010 116 </s> -0.3010
-0.3010 117 </s> -0.3010
-0.3010 118 </s> -0.3010
-0.3010 119 </s> -0.3010
-0.3010 12 </s> -0.3010
-0.3010 120 </s> -0.3010
-0.3010 13 </s> -0.3010
-0.3010 135 </s> -0.3010
-0.3010 136 </s> -0.3010
-0.3010 137 </s> -0.3010
-0.3010 14 </s> -0.3010
-0.3010 140 </s> -0.3010
-0.3010 141 </s> -0.3010
-0.3010 142 </s> -0.3010
-0.3010 143 </s> -0.3010
-0.3010 144 </s> -0.3010
-0.3010 145 </s> -0.3010
-0.3010 146 </s> -0.3010
-0.3010 147 </s> -0.3010
-0.3010 148 </s> -0.3010
-0.3010 149 </s> -0.3010
-0.3010 15 </s> -0.3010
-0.3010 150 </s> -0.3010
-0.3010 16 </s> -0.3010
-0.3010 17 </s> -0.3010
-0.3010 18 </s> -0.3010
-0.3010 19 </s> -0.3010
-0.3010 2 </s> -0.3010
-0.3010 20 </s> -0.3010
-0.3010 21 </s> -0.3010
-0.3010 22 </s> -0.3010
-0.3010 23 </s> -0.3010
-0.3010 24 </s> -0.3010
-0.3010 25 </s> -0.3010
-0.3010 3 </s> -0.3010
-0.3010 30 </s> -0.3010
-0.3010 31 </s> -0.3010
-0.3010 32 </s> -0.3010
-0.3010 33 </s> -0.3010
-0.3010 34 </s> -0.3010
-0.3010 35 </s> -0.3010
-0.3010 36 </s> -0.3010
-0.3010 37 </s> -0.3010
-0.3010 38 </s> -0.3010
-0.3010 39 </s> -0.3010
-0.3010 4 </s> -0.3010
-0.3010 40 </s> -0.3010
-0.3010 41 </s> -0.3010
-0.3010 42 </s> -0.3010
-0.3010 43 </s> -0.3010
-0.3010 44 </s> -0.3010
-0.3010 45 </s> -0.3010
-0.3010 5 </s> -0.3010
-0.3010 50 </s> -0.3010
-0.3010 51 </s> -0.3010
-0.3010 52 </s> -0.3010
-0.3010 53 </s> -0.3010
-0.3010 54 </s> -0.3010
-0.3010 55 </s> -0.3010
-0.3010 56 </s> -0.3010
-0.3010 57 </s> -0.3010
-0.3010 58 </s> -0.3010
-0.3010 59 </s> -0.3010
-0.3010 6 </s> -0.3010
-0.3010 60 </s> -0.3010
-0.3010 62 </s> -0.3010
-0.3010 63 </s> -0.3010
-0.3010 64 </s> -0.3010
-0.3010 65 </s> -0.3010
-0.3010 66 </s> -0.3010
-0.3010 7 </s> -0.3010
-0.3010 70 </s> -0.3010
-0.3010 71 </s> -0.3010
-0.3010 72 </s> -0.3010
-0.3010 73 </s> -0.3010
-0.3010 8 </s> -0.3010
-0.3010 80 </s> -0.3010
-0.3010 9 </s> -0.3010
-0.3010 98 </s> -0.3010
-0.3010 99 </s> -0.3010
-2.2788 <s> 1 0.0000
-2.2788 <s> 10 0.0000
-2.2788 <s> 100 0.0000
-2.2788 <s> 101 0.0000
-2.2788 <s> 102 0.0000
-2.2788 <s> 103 0.0000
-2.2788 <s> 104 0.0000
-2.2788 <s> 105 0.0000
-2.2788 <s> 11 0.0000
-2.2788 <s> 110 0.0000
-2.2788 <s> 111 0.0000
-2.2788 <s> 112 0.0000
-2.2788 <s> 113 0.0000
-2.2788 <s> 114 0.0000
-2.2788 <s> 115 0.0000
-2.2788 <s> 116 0.0000
-2.2788 <s> 117 0.0000
-2.2788 <s> 118 0.0000
-2.2788 <s> 119 0.0000
-2.2788 <s> 12 0.0000
-2.2788 <s> 120 0.0000
-2.2788 <s> 13 0.0000
-2.2788 <s> 135 0.0000
-2.2788 <s> 136 0.0000
-2.2788 <s> 137 0.0000
-2.2788 <s> 14 0.0000
-2.2788 <s> 140 0.0000
-2.2788 <s> 141 0.0000
-2.2788 <s> 142 0.0000
-2.2788 <s> 143 0.0000
-2.2788 <s> 144 0.0000
-2.2788 <s> 145 0.0000
-2.2788 <s> 146 0.0000
-2.2788 <s> 147 0.0000
-2.2788 <s> 148 0.0000
-2.2788 <s> 149 0.0000
-2.2788 <s> 15 0.0000
-2.2788 <s> 150 0.0000
-2.2788 <s> 16 0.0000
-2.2788 <s> 17 0.0000
-2.2788 <s> 18 0.0000
-2.2788 <s> 19 0.0000
-2.2788 <s> 2 0.0000
-2.2788 <s> 20 0.0000
-2.2788 <s> 21 0.0000
-2.2788 <s> 22 0.0000
-2.2788 <s> 23 0.0000
-2.2788 <s> 24 0.0000
-2.2788 <s> 25 0.0000
-2.2788 <s> 3 0.0000
-2.2788 <s> 30 0.0000
-2.2788 <s> 31 0.0000
-2.2788 <s> 32 0.0000
-2.2788 <s> 33 0.0000
-2.2788 <s> 34 0.0000
-2.2788 <s> 35 0.0000
-2.2788 <s> 36 0.0000
-2.2788 <s> 37 0.0000
-2.2788 <s> 38 0.0000
-2.2788 <s> 39 0.0000
-2.2788 <s> 4 0.0000
-2.2788 <s> 40 0.0000
-2.2788 <s> 41 0.0000
-2.2788 <s> 42 0.0000
-2.2788 <s> 43 0.0000
-2.2788 <s> 44 0.0000
-2.2788 <s> 45 0.0000
-2.2788 <s> 5 0.0000
-2.2788 <s> 50 0.0000
-2.2788 <s> 51 0.0000
-2.2788 <s> 52 0.0000
-2.2788 <s> 53 0.0000
-2.2788 <s> 54 0.0000
-2.2788 <s> 55 0.0000
-2.2788 <s> 56 0.0000
-2.2788 <s> 57 0.0000
-2.2788 <s> 58 0.0000
-2.2788 <s> 59 0.0000
-2.2788 <s> 6 0.0000
-2.2788 <s> 60 0.0000
-2.2788 <s> 62 0.0000
-2.2788 <s> 63 0.0000
-2.2788 <s> 64 0.0000
-2.2788 <s> 65 0.0000
-2.2788 <s> 66 0.0000
-2.2788 <s> 7 0.0000
-2.2788 <s> 70 0.0000
-2.2788 <s> 71 0.0000
-2.2788 <s> 72 0.0000
-2.2788 <s> 73 0.0000
-2.2788 <s> 8 0.0000
-2.2788 <s> 80 0.0000
-2.2788 <s> 9 0.0000
-2.2788 <s> 98 0.0000
-2.2788 <s> 99 0.0000

\3-grams:
-0.3010 <s> 1 </s>
-0.3010 <s> 10 </s>
-0.3010 <s> 100 </s>
-0.3010 <s> 101 </s>
-0.3010 <s> 102 </s>
-0.3010 <s> 103 </s>
-0.3010 <s> 104 </s>
-0.3010 <s> 105 </s>
-0.3010 <s> 11 </s>
-0.3010 <s> 110 </s>
-0.3010 <s> 111 </s>
-0.3010 <s> 112 </s>
-0.3010 <s> 113 </s>
-0.3010 <s> 114 </s>
-0.3010 <s> 115 </s>
-0.3010 <s> 116 </s>
-0.3010 <s> 117 </s>
-0.3010 <s> 118 </s>
-0.3010 <s> 119 </s>
-0.3010 <s> 12 </s>
-0.3010 <s> 120 </s>
-0.3010 <s> 13 </s>
-0.3010 <s> 135 </s>
-0.3010 <s> 136 </s>
-0.3010 <s> 137 </s>
-0.3010 <s> 14 </s>
-0.3010 <s> 140 </s>
-0.3010 <s> 141 </s>
-0.3010 <s> 142 </s>
-0.3010 <s> 143 </s>
-0.3010 <s> 144 </s>
-0.3010 <s> 145 </s>
-0.3010 <s> 146 </s>
-0.3010 <s> 147 </s>
-0.3010 <s> 148 </s>
-0.3010 <s> 149 </s>
-0.3010 <s> 15 </s>
-0.3010 <s> 150 </s>
-0.3010 <s> 16 </s>
-0.3010 <s> 17 </s>
-0.3010 <s> 18 </s>
-0.3010 <s> 19 </s>
-0.3010 <s> 2 </s>
-0.3010 <s> 20 </s>
-0.3010 <s> 21 </s>
-0.3010 <s> 22 </s>
-0.3010 <s> 23 </s>
-0.3010 <s> 24 </s>
-0.3010 <s> 25 </s>
-0.3010 <s> 3 </s>
-0.3010 <s> 30 </s>
-0.3010 <s> 31 </s>
-0.3010 <s> 32 </s>
-0.3010 <s> 33 </s>
-0.3010 <s> 34 </s>
-0.3010 <s> 35 </s>
-0.3010 <s> 36 </s>
-0.3010 <s> 37 </s>
-0.3010 <s> 38 </s>
-0.3010 <s> 39 </s>
-0.3010 <s> 4 </s>
-0.3010 <s> 40 </s>
-0.3010 <s> 41 </s>
-0.3010 <s> 42 </s>
-0.3010 <s> 43 </s>
-0.3010 <s> 44 </s>
-0.3010 <s> 45 </s>
-0.3010 <s> 5 </s>
-0.3010 <s> 50 </s>
-0.3010 <s> 51 </s>
-0.3010 <s> 52 </s>
-0.3010 <s> 53 </s>
-0.3010 <s> 54 </s>
-0.3010 <s> 55 </s>
-0.3010 <s> 56 </s>
-0.3010 <s> 57 </s>
-0.3010 <s> 58 </s>
-0.3010 <s> 59 </s>
-0.3010 <s> 6 </s>
-0.3010 <s> 60 </s>
-0.3010 <s> 62 </s>
-0.3010 <s> 63 </s>
-0.3010 <s> 64 </s>
-0.3010 <s> 65 </s>
-0.3010 <s> 66 </s>
-0.3010 <s> 7 </s>
-0.3010 <s> 70 </s>
-0.3010 <s> 71 </s>
-0.3010 <s> 72 </s>
-0.3010 <s> 73 </s>
-0.3010 <s> 8 </s>
-0.3010 <s> 80 </s>
-0.3010 <s> 9 </s>
-0.3010 <s> 98 </s>
-0.3010 <s> 99 </s>

\end\
