Language model created by QuickLM on Fri Oct 31 17:06:17 EDT 2014
Copyright (c) 1996-2010 Carnegie Mellon University and Alexander I. Rudnicky

The model is in standard ARPA format, designed by Doug Paul while he was at MITRE.

The code that was used to produce this language model is available in Open Source.
Please visit http://www.speech.cs.cmu.edu/tools/ for more information

The (fixed) discount mass is 0.5. The backoffs are computed using the ratio method.
This model based on a corpus of 66 sentences and 64 words

\data\
ngram 1=64
ngram 2=130
ngram 3=88

\1-grams:
-0.8259 </s> -0.3010
-0.8259 <s> -0.2262
-2.6454 AGUNG -0.2308
-2.6454 AMOS -0.2308
-2.6454 AMSAL -0.2308
-2.6454 AYUB -0.2308
-2.6454 BILANGAN -0.2308
-2.6454 DANIEL -0.2308
-1.7423 DUA -0.2809
-2.6454 EFESUS -0.2308
-2.6454 ESTER -0.2308
-2.6454 EZRA -0.2308
-2.6454 FILEMON -0.2308
-2.6454 FILIPI -0.2308
-2.6454 GALATIA -0.2308
-2.6454 HABAKUK -0.2308
-2.6454 HAGAI -0.2308
-2.3444 HAKIM -0.2285
-2.6454 HOSEA -0.2308
-2.6454 IBRANI -0.2308
-2.6454 IMAMAT -0.2308
-2.6454 KEJADIAN -0.2308
-2.6454 KELUARAN -0.2308
-2.6454 KIDUNG -0.3000
-2.6454 KISAH -0.3000
-2.6454 KOLOSE -0.2308
-2.3444 KORINTUS -0.2308
-2.6454 LUKAS -0.2308
-2.6454 MALEAKHI -0.2308
-2.6454 MARKUS -0.2308
-2.6454 MATIUS -0.2308
-2.6454 MAZMUR -0.2308
-2.6454 MIKHA -0.2308
-2.6454 NAHUM -0.2308
-2.6454 NEHEMIA -0.2308
-2.6454 OBAJA -0.2308
-2.6454 PARA -0.3000
-2.6454 PENGKHOTBAH -0.2308
-2.3444 PETRUS -0.2308
-2.0434 RAJA -0.2262
-2.6454 RASUL -0.2308
-2.6454 RATAPAN -0.2308
-2.6454 ROMA -0.2308
-2.6454 RUT -0.2308
-2.3444 SAMUEL -0.2308
-1.7423 SATU -0.2809
-2.3444 TAWARIKH -0.2308
-2.3444 TESALONIKA -0.2308
-2.6454 TIGA -0.2971
-2.3444 TIMOTIUS -0.2308
-2.6454 TITUS -0.2308
-2.6454 ULANGAN -0.2308
-2.6454 WAHYU -0.2308
-2.6454 YAKOBUS -0.2308
-2.6454 YEHEZKIEL -0.2308
-2.6454 YEREMIA -0.2308
-2.6454 YESAYA -0.2308
-2.6454 YOEL -0.2308
-2.0434 YOHANES -0.2308
-2.6454 YOSUA -0.2308
-2.6454 YUDAS -0.2308
-2.6454 YUNUS -0.2308
-2.6454 ZAKHARIA -0.2308
-2.6454 ZEFANYA -0.2308

\2-grams:
-2.1206 <s> AMOS 0.0000
-2.1206 <s> AMSAL 0.0000
-2.1206 <s> AYUB 0.0000
-2.1206 <s> BILANGAN 0.0000
-2.1206 <s> DANIEL 0.0000
-1.2175 <s> DUA 0.0000
-2.1206 <s> EFESUS 0.0000
-2.1206 <s> ESTER 0.0000
-2.1206 <s> EZRA 0.0000
-2.1206 <s> FILEMON 0.0000
-2.1206 <s> FILIPI 0.0000
-2.1206 <s> GALATIA 0.0000
-2.1206 <s> HABAKUK 0.0000
-2.1206 <s> HAGAI 0.0000
-2.1206 <s> HAKIM -0.1761
-2.1206 <s> HOSEA 0.0000
-2.1206 <s> IBRANI 0.0000
-2.1206 <s> IMAMAT 0.0000
-2.1206 <s> KEJADIAN 0.0000
-2.1206 <s> KELUARAN 0.0000
-2.1206 <s> KIDUNG 0.0000
-2.1206 <s> KISAH 0.0000
-2.1206 <s> KOLOSE 0.0000
-2.1206 <s> LUKAS 0.0000
-2.1206 <s> MALEAKHI 0.0000
-2.1206 <s> MARKUS 0.0000
-2.1206 <s> MATIUS 0.0000
-2.1206 <s> MAZMUR 0.0000
-2.1206 <s> MIKHA 0.0000
-2.1206 <s> NAHUM 0.0000
-2.1206 <s> NEHEMIA 0.0000
-2.1206 <s> OBAJA 0.0000
-2.1206 <s> PENGKHOTBAH 0.0000
-2.1206 <s> RATAPAN 0.0000
-2.1206 <s> ROMA 0.0000
-2.1206 <s> RUT 0.0000
-1.2175 <s> SATU 0.0000
-2.1206 <s> TIGA 0.0000
-2.1206 <s> TITUS 0.0000
-2.1206 <s> ULANGAN 0.0000
-2.1206 <s> WAHYU 0.0000
-2.1206 <s> YAKOBUS 0.0000
-2.1206 <s> YEHEZKIEL 0.0000
-2.1206 <s> YEREMIA 0.0000
-2.1206 <s> YESAYA 0.0000
-2.1206 <s> YOEL 0.0000
-2.1206 <s> YOHANES 0.0000
-2.1206 <s> YOSUA 0.0000
-2.1206 <s> YUDAS 0.0000
-2.1206 <s> YUNUS 0.0000
-2.1206 <s> ZAKHARIA 0.0000
-2.1206 <s> ZEFANYA 0.0000
-0.3010 AGUNG </s> -0.3010
-0.3010 AMOS </s> -0.3010
-0.3010 AMSAL </s> -0.3010
-0.3010 AYUB </s> -0.3010
-0.3010 BILANGAN </s> -0.3010
-0.3010 DANIEL </s> -0.3010
-1.2041 DUA KORINTUS 0.0000
-1.2041 DUA PETRUS 0.0000
-1.2041 DUA RAJA -0.1761
-1.2041 DUA SAMUEL 0.0000
-1.2041 DUA TAWARIKH 0.0000
-1.2041 DUA TESALONIKA 0.0000
-1.2041 DUA TIMOTIUS 0.0000
-1.2041 DUA YOHANES 0.0000
-0.3010 EFESUS </s> -0.3010
-0.3010 ESTER </s> -0.3010
-0.3010 EZRA </s> -0.3010
-0.3010 FILEMON </s> -0.3010
-0.3010 FILIPI </s> -0.3010
-0.3010 GALATIA </s> -0.3010
-0.3010 HABAKUK </s> -0.3010
-0.3010 HAGAI </s> -0.3010
-0.6021 HAKIM </s> -0.3010
-0.6021 HAKIM HAKIM -0.1761
-0.3010 HOSEA </s> -0.3010
-0.3010 IBRANI </s> -0.3010
-0.3010 IMAMAT </s> -0.3010
-0.3010 KEJADIAN </s> -0.3010
-0.3010 KELUARAN </s> -0.3010
-0.3010 KIDUNG AGUNG 0.0000
-0.3010 KISAH PARA 0.0000
-0.3010 KOLOSE </s> -0.3010
-0.3010 KORINTUS </s> -0.3010
-0.3010 LUKAS </s> -0.3010
-0.3010 MALEAKHI </s> -0.3010
-0.3010 MARKUS </s> -0.3010
-0.3010 MATIUS </s> -0.3010
-0.3010 MAZMUR </s> -0.3010
-0.3010 MIKHA </s> -0.3010
-0.3010 NAHUM </s> -0.3010
-0.3010 NEHEMIA </s> -0.3010
-0.3010 OBAJA </s> -0.3010
-0.3010 PARA RASUL 0.0000
-0.3010 PENGKHOTBAH </s> -0.3010
-0.3010 PETRUS </s> -0.3010
-0.6021 RAJA </s> -0.3010
-0.6021 RAJA RAJA -0.1761
-0.3010 RASUL </s> -0.3010
-0.3010 RATAPAN </s> -0.3010
-0.3010 ROMA </s> -0.3010
-0.3010 RUT </s> -0.3010
-0.3010 SAMUEL </s> -0.3010
-1.2041 SATU KORINTUS 0.0000
-1.2041 SATU PETRUS 0.0000
-1.2041 SATU RAJA -0.1761
-1.2041 SATU SAMUEL 0.0000
-1.2041 SATU TAWARIKH 0.0000
-1.2041 SATU TESALONIKA 0.0000
-1.2041 SATU TIMOTIUS 0.0000
-1.2041 SATU YOHANES 0.0000
-0.3010 TAWARIKH </s> -0.3010
-0.3010 TESALONIKA </s> -0.3010
-0.3010 TIGA YOHANES 0.0000
-0.3010 TIMOTIUS </s> -0.3010
-0.3010 TITUS </s> -0.3010
-0.3010 ULANGAN </s> -0.3010
-0.3010 WAHYU </s> -0.3010
-0.3010 YAKOBUS </s> -0.3010
-0.3010 YEHEZKIEL </s> -0.3010
-0.3010 YEREMIA </s> -0.3010
-0.3010 YESAYA </s> -0.3010
-0.3010 YOEL </s> -0.3010
-0.3010 YOHANES </s> -0.3010
-0.3010 YOSUA </s> -0.3010
-0.3010 YUDAS </s> -0.3010
-0.3010 YUNUS </s> -0.3010
-0.3010 ZAKHARIA </s> -0.3010
-0.3010 ZEFANYA </s> -0.3010

\3-grams:
-0.3010 <s> AMOS </s>
-0.3010 <s> AMSAL </s>
-0.3010 <s> AYUB </s>
-0.3010 <s> BILANGAN </s>
-0.3010 <s> DANIEL </s>
-1.2041 <s> DUA KORINTUS
-1.2041 <s> DUA PETRUS
-1.2041 <s> DUA RAJA
-1.2041 <s> DUA SAMUEL
-1.2041 <s> DUA TAWARIKH
-1.2041 <s> DUA TESALONIKA
-1.2041 <s> DUA TIMOTIUS
-1.2041 <s> DUA YOHANES
-0.3010 <s> EFESUS </s>
-0.3010 <s> ESTER </s>
-0.3010 <s> EZRA </s>
-0.3010 <s> FILEMON </s>
-0.3010 <s> FILIPI </s>
-0.3010 <s> GALATIA </s>
-0.3010 <s> HABAKUK </s>
-0.3010 <s> HAGAI </s>
-0.3010 <s> HAKIM HAKIM
-0.3010 <s> HOSEA </s>
-0.3010 <s> IBRANI </s>
-0.3010 <s> IMAMAT </s>
-0.3010 <s> KEJADIAN </s>
-0.3010 <s> KELUARAN </s>
-0.3010 <s> KIDUNG AGUNG
-0.3010 <s> KISAH PARA
-0.3010 <s> KOLOSE </s>
-0.3010 <s> LUKAS </s>
-0.3010 <s> MALEAKHI </s>
-0.3010 <s> MARKUS </s>
-0.3010 <s> MATIUS </s>
-0.3010 <s> MAZMUR </s>
-0.3010 <s> MIKHA </s>
-0.3010 <s> NAHUM </s>
-0.3010 <s> NEHEMIA </s>
-0.3010 <s> OBAJA </s>
-0.3010 <s> PENGKHOTBAH </s>
-0.3010 <s> RATAPAN </s>
-0.3010 <s> ROMA </s>
-0.3010 <s> RUT </s>
-1.2041 <s> SATU KORINTUS
-1.2041 <s> SATU PETRUS
-1.2041 <s> SATU RAJA
-1.2041 <s> SATU SAMUEL
-1.2041 <s> SATU TAWARIKH
-1.2041 <s> SATU TESALONIKA
-1.2041 <s> SATU TIMOTIUS
-1.2041 <s> SATU YOHANES
-0.3010 <s> TIGA YOHANES
-0.3010 <s> TITUS </s>
-0.3010 <s> ULANGAN </s>
-0.3010 <s> WAHYU </s>
-0.3010 <s> YAKOBUS </s>
-0.3010 <s> YEHEZKIEL </s>
-0.3010 <s> YEREMIA </s>
-0.3010 <s> YESAYA </s>
-0.3010 <s> YOEL </s>
-0.3010 <s> YOHANES </s>
-0.3010 <s> YOSUA </s>
-0.3010 <s> YUDAS </s>
-0.3010 <s> YUNUS </s>
-0.3010 <s> ZAKHARIA </s>
-0.3010 <s> ZEFANYA </s>
-0.3010 DUA KORINTUS </s>
-0.3010 DUA PETRUS </s>
-0.3010 DUA RAJA RAJA
-0.3010 DUA SAMUEL </s>
-0.3010 DUA TAWARIKH </s>
-0.3010 DUA TESALONIKA </s>
-0.3010 DUA TIMOTIUS </s>
-0.3010 DUA YOHANES </s>
-0.3010 HAKIM HAKIM </s>
-0.3010 KIDUNG AGUNG </s>
-0.3010 KISAH PARA RASUL
-0.3010 PARA RASUL </s>
-0.3010 RAJA RAJA </s>
-0.3010 SATU KORINTUS </s>
-0.3010 SATU PETRUS </s>
-0.3010 SATU RAJA RAJA
-0.3010 SATU SAMUEL </s>
-0.3010 SATU TAWARIKH </s>
-0.3010 SATU TESALONIKA </s>
-0.3010 SATU TIMOTIUS </s>
-0.3010 SATU YOHANES </s>
-0.3010 TIGA YOHANES </s>

\end\
