Language model created by QuickLM on Thu Oct 30 13:24:06 EDT 2014
Copyright (c) 1996-2010 Carnegie Mellon University and Alexander I. Rudnicky

The model is in standard ARPA format, designed by Doug Paul while he was at MITRE.

The code that was used to produce this language model is available in Open Source.
Please visit http://www.speech.cs.cmu.edu/tools/ for more information

The (fixed) discount mass is 0.5. The backoffs are computed using the ratio method.
This model based on a corpus of 8 sentences and 11 words

\data\
ngram 1=11
ngram 2=17
ngram 3=10

\1-grams:
-0.8129 </s> -0.3010
-0.8129 <s> -0.2285
-1.4150 BIBLE -0.2285
-1.7160 CANCEL -0.2285
-1.7160 CLOSE -0.2840
-1.7160 CONTINUE -0.2285
-1.7160 ENGLISH -0.2285
-1.7160 INDONESIAN -0.2285
-1.7160 OPEN -0.2840
-1.7160 PAUSE -0.2285
-1.7160 STOP -0.2285

\2-grams:
-1.2041 <s> CANCEL 0.0000
-1.2041 <s> CLOSE 0.0000
-1.2041 <s> CONTINUE 0.0000
-1.2041 <s> ENGLISH 0.0000
-1.2041 <s> INDONESIAN 0.0000
-1.2041 <s> OPEN 0.0000
-1.2041 <s> PAUSE 0.0000
-1.2041 <s> STOP 0.0000
-0.3010 BIBLE </s> -0.3010
-0.3010 CANCEL </s> -0.3010
-0.3010 CLOSE BIBLE 0.0000
-0.3010 CONTINUE </s> -0.3010
-0.3010 ENGLISH </s> -0.3010
-0.3010 INDONESIAN </s> -0.3010
-0.3010 OPEN BIBLE 0.0000
-0.3010 PAUSE </s> -0.3010
-0.3010 STOP </s> -0.3010

\3-grams:
-0.3010 <s> CANCEL </s>
-0.3010 <s> CLOSE BIBLE
-0.3010 <s> CONTINUE </s>
-0.3010 <s> ENGLISH </s>
-0.3010 <s> INDONESIAN </s>
-0.3010 <s> OPEN BIBLE
-0.3010 <s> PAUSE </s>
-0.3010 <s> STOP </s>
-0.3010 CLOSE BIBLE </s>
-0.3010 OPEN BIBLE </s>

\end\
